digraph Tree {
node [shape=box, fontname="helvetica"] ;
edge [fontname="helvetica"] ;
0 [label="No_of_children_born <= 0.5\ngini = 0.491\nsamples = 975\nvalue = [422, 553]\nclass = Yes"] ;
1 [label="Wife_age <= 17.5\ngini = 0.057\nsamples = 68\nvalue = [66, 2]\nclass = No"] ;
0 -> 1 [labeldistance=2.5, labelangle=45, headlabel="True"] ;
2 [label="gini = 0.0\nsamples = 1\nvalue = [0, 1]\nclass = Yes"] ;
1 -> 2 ;
3 [label="Husband_Occupation <= 3.5\ngini = 0.029\nsamples = 67\nvalue = [66, 1]\nclass = No"] ;
1 -> 3 ;
4 [label="gini = 0.0\nsamples = 63\nvalue = [63, 0]\nclass = No"] ;
3 -> 4 ;
5 [label="Wife_religion <= 0.5\ngini = 0.375\nsamples = 4\nvalue = [3, 1]\nclass = No"] ;
3 -> 5 ;
6 [label="gini = 0.0\nsamples = 1\nvalue = [0, 1]\nclass = Yes"] ;
5 -> 6 ;
7 [label="gini = 0.0\nsamples = 3\nvalue = [3, 0]\nclass = No"] ;
5 -> 7 ;
8 [label="Wife_age <= 41.5\ngini = 0.477\nsamples = 907\nvalue = [356, 551]\nclass = Yes"] ;
0 -> 8 [labeldistance=2.5, labelangle=-45, headlabel="False"] ;
9 [label="No_of_children_born <= 2.5\ngini = 0.449\nsamples = 735\nvalue = [250, 485]\nclass = Yes"] ;
8 -> 9 ;
10 [label="Wife_ education <= 2.5\ngini = 0.496\nsamples = 329\nvalue = [150, 179]\nclass = Yes"] ;
9 -> 10 ;
11 [label="Wife_age <= 28.5\ngini = 0.454\nsamples = 86\nvalue = [56, 30]\nclass = No"] ;
10 -> 11 ;
12 [label="Wife_age <= 20.5\ngini = 0.488\nsamples = 64\nvalue = [37, 27]\nclass = No"] ;
11 -> 12 ;
13 [label="Wife_age <= 16.5\ngini = 0.198\nsamples = 9\nvalue = [8, 1]\nclass = No"] ;
12 -> 13 ;
14 [label="gini = 0.0\nsamples = 1\nvalue = [0, 1]\nclass = Yes"] ;
13 -> 14 ;
15 [label="gini = 0.0\nsamples = 8\nvalue = [8, 0]\nclass = No"] ;
13 -> 15 ;
16 [label="No_of_children_born <= 1.5\ngini = 0.499\nsamples = 55\nvalue = [29, 26]\nclass = No"] ;
12 -> 16 ;
17 [label="Husband_Occupation <= 2.5\ngini = 0.464\nsamples = 30\nvalue = [19, 11]\nclass = No"] ;
16 -> 17 ;
18 [label="Standard_of_living_index <= 3.5\ngini = 0.198\nsamples = 9\nvalue = [8, 1]\nclass = No"] ;
17 -> 18 ;
19 [label="gini = 0.0\nsamples = 6\nvalue = [6, 0]\nclass = No"] ;
18 -> 19 ;
20 [label="Husband_Occupation <= 1.5\ngini = 0.444\nsamples = 3\nvalue = [2, 1]\nclass = No"] ;
18 -> 20 ;
21 [label="gini = 0.0\nsamples = 1\nvalue = [0, 1]\nclass = Yes"] ;
20 -> 21 ;
22 [label="gini = 0.0\nsamples = 2\nvalue = [2, 0]\nclass = No"] ;
20 -> 22 ;
23 [label="Wife_age <= 25.5\ngini = 0.499\nsamples = 21\nvalue = [11, 10]\nclass = No"] ;
17 -> 23 ;
24 [label="Wife_age <= 23.0\ngini = 0.48\nsamples = 15\nvalue = [6, 9]\nclass = Yes"] ;
23 -> 24 ;
25 [label="Wife_age <= 21.5\ngini = 0.494\nsamples = 9\nvalue = [5, 4]\nclass = No"] ;
24 -> 25 ;
26 [label="Standard_of_living_index <= 3.5\ngini = 0.444\nsamples = 6\nvalue = [2, 4]\nclass = Yes"] ;
25 -> 26 ;
27 [label="Husband_education <= 2.5\ngini = 0.32\nsamples = 5\nvalue = [1, 4]\nclass = Yes"] ;
26 -> 27 ;
28 [label="Husband_Occupation <= 3.5\ngini = 0.444\nsamples = 3\nvalue = [1, 2]\nclass = Yes"] ;
27 -> 28 ;
29 [label="gini = 0.5\nsamples = 2\nvalue = [1, 1]\nclass = No"] ;
28 -> 29 ;
30 [label="gini = 0.0\nsamples = 1\nvalue = [0, 1]\nclass = Yes"] ;
28 -> 30 ;
31 [label="gini = 0.0\nsamples = 2\nvalue = [0, 2]\nclass = Yes"] ;
27 -> 31 ;
32 [label="gini = 0.0\nsamples = 1\nvalue = [1, 0]\nclass = No"] ;
26 -> 32 ;
33 [label="gini = 0.0\nsamples = 3\nvalue = [3, 0]\nclass = No"] ;
25 -> 33 ;
34 [label="Wife_ education <= 1.5\ngini = 0.278\nsamples = 6\nvalue = [1, 5]\nclass = Yes"] ;
24 -> 34 ;
35 [label="Media_exposure  <= 0.5\ngini = 0.5\nsamples = 2\nvalue = [1, 1]\nclass = No"] ;
34 -> 35 ;
36 [label="gini = 0.0\nsamples = 1\nvalue = [0, 1]\nclass = Yes"] ;
35 -> 36 ;
37 [label="gini = 0.0\nsamples = 1\nvalue = [1, 0]\nclass = No"] ;
35 -> 37 ;
38 [label="gini = 0.0\nsamples = 4\nvalue = [0, 4]\nclass = Yes"] ;
34 -> 38 ;
39 [label="Husband_education <= 3.5\ngini = 0.278\nsamples = 6\nvalue = [5, 1]\nclass = No"] ;
23 -> 39 ;
40 [label="gini = 0.0\nsamples = 5\nvalue = [5, 0]\nclass = No"] ;
39 -> 40 ;
41 [label="gini = 0.0\nsamples = 1\nvalue = [0, 1]\nclass = Yes"] ;
39 -> 41 ;
42 [label="Husband_Occupation <= 2.5\ngini = 0.48\nsamples = 25\nvalue = [10, 15]\nclass = Yes"] ;
16 -> 42 ;
43 [label="gini = 0.0\nsamples = 6\nvalue = [0, 6]\nclass = Yes"] ;
42 -> 43 ;
44 [label="Standard_of_living_index <= 3.5\ngini = 0.499\nsamples = 19\nvalue = [10, 9]\nclass = No"] ;
42 -> 44 ;
45 [label="Wife_age <= 27.0\ngini = 0.469\nsamples = 16\nvalue = [10, 6]\nclass = No"] ;
44 -> 45 ;
46 [label="Wife_age <= 23.5\ngini = 0.408\nsamples = 14\nvalue = [10, 4]\nclass = No"] ;
45 -> 46 ;
47 [label="Wife_ education <= 1.5\ngini = 0.494\nsamples = 9\nvalue = [5, 4]\nclass = No"] ;
46 -> 47 ;
48 [label="gini = 0.0\nsamples = 2\nvalue = [0, 2]\nclass = Yes"] ;
47 -> 48 ;
49 [label="Wife_Working <= 0.5\ngini = 0.408\nsamples = 7\nvalue = [5, 2]\nclass = No"] ;
47 -> 49 ;
50 [label="Wife_age <= 22.5\ngini = 0.278\nsamples = 6\nvalue = [5, 1]\nclass = No"] ;
49 -> 50 ;
51 [label="gini = 0.0\nsamples = 3\nvalue = [3, 0]\nclass = No"] ;
50 -> 51 ;
52 [label="Standard_of_living_index <= 2.0\ngini = 0.444\nsamples = 3\nvalue = [2, 1]\nclass = No"] ;
50 -> 52 ;
53 [label="gini = 0.0\nsamples = 1\nvalue = [0, 1]\nclass = Yes"] ;
52 -> 53 ;
54 [label="gini = 0.0\nsamples = 2\nvalue = [2, 0]\nclass = No"] ;
52 -> 54 ;
55 [label="gini = 0.0\nsamples = 1\nvalue = [0, 1]\nclass = Yes"] ;
49 -> 55 ;
56 [label="gini = 0.0\nsamples = 5\nvalue = [5, 0]\nclass = No"] ;
46 -> 56 ;
57 [label="gini = 0.0\nsamples = 2\nvalue = [0, 2]\nclass = Yes"] ;
45 -> 57 ;
58 [label="gini = 0.0\nsamples = 3\nvalue = [0, 3]\nclass = Yes"] ;
44 -> 58 ;
59 [label="No_of_children_born <= 1.5\ngini = 0.236\nsamples = 22\nvalue = [19, 3]\nclass = No"] ;
11 -> 59 ;
60 [label="gini = 0.0\nsamples = 9\nvalue = [9, 0]\nclass = No"] ;
59 -> 60 ;
61 [label="Media_exposure  <= 0.5\ngini = 0.355\nsamples = 13\nvalue = [10, 3]\nclass = No"] ;
59 -> 61 ;
62 [label="gini = 0.0\nsamples = 2\nvalue = [2, 0]\nclass = No"] ;
61 -> 62 ;
63 [label="Wife_age <= 31.0\ngini = 0.397\nsamples = 11\nvalue = [8, 3]\nclass = No"] ;
61 -> 63 ;
64 [label="gini = 0.0\nsamples = 2\nvalue = [2, 0]\nclass = No"] ;
63 -> 64 ;
65 [label="Husband_education <= 1.5\ngini = 0.444\nsamples = 9\nvalue = [6, 3]\nclass = No"] ;
63 -> 65 ;
66 [label="gini = 0.0\nsamples = 1\nvalue = [1, 0]\nclass = No"] ;
65 -> 66 ;
67 [label="Wife_age <= 38.0\ngini = 0.469\nsamples = 8\nvalue = [5, 3]\nclass = No"] ;
65 -> 67 ;
68 [label="Wife_age <= 35.0\ngini = 0.408\nsamples = 7\nvalue = [5, 2]\nclass = No"] ;
67 -> 68 ;
69 [label="Husband_education <= 2.5\ngini = 0.48\nsamples = 5\nvalue = [3, 2]\nclass = No"] ;
68 -> 69 ;
70 [label="gini = 0.0\nsamples = 2\nvalue = [2, 0]\nclass = No"] ;
69 -> 70 ;
71 [label="Standard_of_living_index <= 2.5\ngini = 0.444\nsamples = 3\nvalue = [1, 2]\nclass = Yes"] ;
69 -> 71 ;
72 [label="gini = 0.0\nsamples = 1\nvalue = [0, 1]\nclass = Yes"] ;
71 -> 72 ;
73 [label="Husband_education <= 3.5\ngini = 0.5\nsamples = 2\nvalue = [1, 1]\nclass = No"] ;
71 -> 73 ;
74 [label="gini = 0.0\nsamples = 1\nvalue = [0, 1]\nclass = Yes"] ;
73 -> 74 ;
75 [label="gini = 0.0\nsamples = 1\nvalue = [1, 0]\nclass = No"] ;
73 -> 75 ;
76 [label="gini = 0.0\nsamples = 2\nvalue = [2, 0]\nclass = No"] ;
68 -> 76 ;
77 [label="gini = 0.0\nsamples = 1\nvalue = [0, 1]\nclass = Yes"] ;
67 -> 77 ;
78 [label="Wife_age <= 32.5\ngini = 0.474\nsamples = 243\nvalue = [94, 149]\nclass = Yes"] ;
10 -> 78 ;
79 [label="Wife_age <= 31.5\ngini = 0.447\nsamples = 196\nvalue = [66, 130]\nclass = Yes"] ;
78 -> 79 ;
80 [label="Wife_age <= 30.5\ngini = 0.458\nsamples = 175\nvalue = [62, 113]\nclass = Yes"] ;
79 -> 80 ;
81 [label="Wife_age <= 29.5\ngini = 0.443\nsamples = 166\nvalue = [55, 111]\nclass = Yes"] ;
80 -> 81 ;
82 [label="Wife_age <= 22.5\ngini = 0.451\nsamples = 157\nvalue = [54, 103]\nclass = Yes"] ;
81 -> 82 ;
83 [label="Wife_age <= 16.5\ngini = 0.375\nsamples = 48\nvalue = [12, 36]\nclass = Yes"] ;
82 -> 83 ;
84 [label="gini = 0.0\nsamples = 1\nvalue = [1, 0]\nclass = No"] ;
83 -> 84 ;
85 [label="Standard_of_living_index <= 1.5\ngini = 0.359\nsamples = 47\nvalue = [11, 36]\nclass = Yes"] ;
83 -> 85 ;
86 [label="gini = 0.0\nsamples = 5\nvalue = [0, 5]\nclass = Yes"] ;
85 -> 86 ;
87 [label="Wife_religion <= 0.5\ngini = 0.387\nsamples = 42\nvalue = [11, 31]\nclass = Yes"] ;
85 -> 87 ;
88 [label="gini = 0.0\nsamples = 4\nvalue = [0, 4]\nclass = Yes"] ;
87 -> 88 ;
89 [label="Wife_age <= 18.0\ngini = 0.411\nsamples = 38\nvalue = [11, 27]\nclass = Yes"] ;
87 -> 89 ;
90 [label="gini = 0.0\nsamples = 2\nvalue = [0, 2]\nclass = Yes"] ;
89 -> 90 ;
91 [label="Husband_education <= 3.5\ngini = 0.424\nsamples = 36\nvalue = [11, 25]\nclass = Yes"] ;
89 -> 91 ;
92 [label="Wife_Working <= 0.5\ngini = 0.494\nsamples = 9\nvalue = [4, 5]\nclass = Yes"] ;
91 -> 92 ;
93 [label="No_of_children_born <= 1.5\ngini = 0.469\nsamples = 8\nvalue = [3, 5]\nclass = Yes"] ;
92 -> 93 ;
94 [label="gini = 0.0\nsamples = 3\nvalue = [0, 3]\nclass = Yes"] ;
93 -> 94 ;
95 [label="Standard_of_living_index <= 3.5\ngini = 0.48\nsamples = 5\nvalue = [3, 2]\nclass = No"] ;
93 -> 95 ;
96 [label="Standard_of_living_index <= 2.5\ngini = 0.444\nsamples = 3\nvalue = [1, 2]\nclass = Yes"] ;
95 -> 96 ;
97 [label="gini = 0.0\nsamples = 1\nvalue = [1, 0]\nclass = No"] ;
96 -> 97 ;
98 [label="gini = 0.0\nsamples = 2\nvalue = [0, 2]\nclass = Yes"] ;
96 -> 98 ;
99 [label="gini = 0.0\nsamples = 2\nvalue = [2, 0]\nclass = No"] ;
95 -> 99 ;
100 [label="gini = 0.0\nsamples = 1\nvalue = [1, 0]\nclass = No"] ;
92 -> 100 ;
101 [label="Wife_age <= 20.5\ngini = 0.384\nsamples = 27\nvalue = [7, 20]\nclass = Yes"] ;
91 -> 101 ;
102 [label="No_of_children_born <= 1.5\ngini = 0.494\nsamples = 9\nvalue = [4, 5]\nclass = Yes"] ;
101 -> 102 ;
103 [label="Standard_of_living_index <= 3.5\ngini = 0.49\nsamples = 7\nvalue = [4, 3]\nclass = No"] ;
102 -> 103 ;
104 [label="Wife_ education <= 3.5\ngini = 0.5\nsamples = 6\nvalue = [3, 3]\nclass = No"] ;
103 -> 104 ;
105 [label="Standard_of_living_index <= 2.5\ngini = 0.444\nsamples = 3\nvalue = [2, 1]\nclass = No"] ;
104 -> 105 ;
106 [label="gini = 0.5\nsamples = 2\nvalue = [1, 1]\nclass = No"] ;
105 -> 106 ;
107 [label="gini = 0.0\nsamples = 1\nvalue = [1, 0]\nclass = No"] ;
105 -> 107 ;
108 [label="Husband_Occupation <= 1.5\ngini = 0.444\nsamples = 3\nvalue = [1, 2]\nclass = Yes"] ;
104 -> 108 ;
109 [label="gini = 0.5\nsamples = 2\nvalue = [1, 1]\nclass = No"] ;
108 -> 109 ;
110 [label="gini = 0.0\nsamples = 1\nvalue = [0, 1]\nclass = Yes"] ;
108 -> 110 ;
111 [label="gini = 0.0\nsamples = 1\nvalue = [1, 0]\nclass = No"] ;
103 -> 111 ;
112 [label="gini = 0.0\nsamples = 2\nvalue = [0, 2]\nclass = Yes"] ;
102 -> 112 ;
113 [label="Husband_Occupation <= 2.5\ngini = 0.278\nsamples = 18\nvalue = [3, 15]\nclass = Yes"] ;
101 -> 113 ;
114 [label="No_of_children_born <= 1.5\ngini = 0.153\nsamples = 12\nvalue = [1, 11]\nclass = Yes"] ;
113 -> 114 ;
115 [label="gini = 0.0\nsamples = 9\nvalue = [0, 9]\nclass = Yes"] ;
114 -> 115 ;
116 [label="Husband_Occupation <= 1.5\ngini = 0.444\nsamples = 3\nvalue = [1, 2]\nclass = Yes"] ;
114 -> 116 ;
117 [label="gini = 0.0\nsamples = 1\nvalue = [1, 0]\nclass = No"] ;
116 -> 117 ;
118 [label="gini = 0.0\nsamples = 2\nvalue = [0, 2]\nclass = Yes"] ;
116 -> 118 ;
119 [label="Wife_ education <= 3.5\ngini = 0.444\nsamples = 6\nvalue = [2, 4]\nclass = Yes"] ;
113 -> 119 ;
120 [label="gini = 0.0\nsamples = 4\nvalue = [0, 4]\nclass = Yes"] ;
119 -> 120 ;
121 [label="gini = 0.0\nsamples = 2\nvalue = [2, 0]\nclass = No"] ;
119 -> 121 ;
122 [label="Standard_of_living_index <= 2.5\ngini = 0.474\nsamples = 109\nvalue = [42, 67]\nclass = Yes"] ;
82 -> 122 ;
123 [label="Wife_ education <= 3.5\ngini = 0.491\nsamples = 23\nvalue = [13, 10]\nclass = No"] ;
122 -> 123 ;
124 [label="Husband_Occupation <= 2.5\ngini = 0.457\nsamples = 17\nvalue = [11, 6]\nclass = No"] ;
123 -> 124 ;
125 [label="Wife_Working <= 0.5\ngini = 0.245\nsamples = 7\nvalue = [6, 1]\nclass = No"] ;
124 -> 125 ;
126 [label="gini = 0.0\nsamples = 5\nvalue = [5, 0]\nclass = No"] ;
125 -> 126 ;
127 [label="Husband_education <= 3.5\ngini = 0.5\nsamples = 2\nvalue = [1, 1]\nclass = No"] ;
125 -> 127 ;
128 [label="gini = 0.0\nsamples = 1\nvalue = [0, 1]\nclass = Yes"] ;
127 -> 128 ;
129 [label="gini = 0.0\nsamples = 1\nvalue = [1, 0]\nclass = No"] ;
127 -> 129 ;
130 [label="Standard_of_living_index <= 1.5\ngini = 0.5\nsamples = 10\nvalue = [5, 5]\nclass = No"] ;
124 -> 130 ;
131 [label="Husband_education <= 3.5\ngini = 0.375\nsamples = 4\nvalue = [3, 1]\nclass = No"] ;
130 -> 131 ;
132 [label="gini = 0.5\nsamples = 2\nvalue = [1, 1]\nclass = No"] ;
131 -> 132 ;
133 [label="gini = 0.0\nsamples = 2\nvalue = [2, 0]\nclass = No"] ;
131 -> 133 ;
134 [label="Wife_age <= 25.5\ngini = 0.444\nsamples = 6\nvalue = [2, 4]\nclass = Yes"] ;
130 -> 134 ;
135 [label="Wife_age <= 24.5\ngini = 0.444\nsamples = 3\nvalue = [2, 1]\nclass = No"] ;
134 -> 135 ;
136 [label="gini = 0.0\nsamples = 1\nvalue = [0, 1]\nclass = Yes"] ;
135 -> 136 ;
137 [label="gini = 0.0\nsamples = 2\nvalue = [2, 0]\nclass = No"] ;
135 -> 137 ;
138 [label="gini = 0.0\nsamples = 3\nvalue = [0, 3]\nclass = Yes"] ;
134 -> 138 ;
139 [label="Wife_age <= 24.5\ngini = 0.444\nsamples = 6\nvalue = [2, 4]\nclass = Yes"] ;
123 -> 139 ;
140 [label="gini = 0.0\nsamples = 2\nvalue = [0, 2]\nclass = Yes"] ;
139 -> 140 ;
141 [label="Wife_age <= 27.5\ngini = 0.5\nsamples = 4\nvalue = [2, 2]\nclass = No"] ;
139 -> 141 ;
142 [label="No_of_children_born <= 1.5\ngini = 0.444\nsamples = 3\nvalue = [2, 1]\nclass = No"] ;
141 -> 142 ;
143 [label="gini = 0.0\nsamples = 1\nvalue = [1, 0]\nclass = No"] ;
142 -> 143 ;
144 [label="Husband_Occupation <= 2.0\ngini = 0.5\nsamples = 2\nvalue = [1, 1]\nclass = No"] ;
142 -> 144 ;
145 [label="gini = 0.0\nsamples = 1\nvalue = [0, 1]\nclass = Yes"] ;
144 -> 145 ;
146 [label="gini = 0.0\nsamples = 1\nvalue = [1, 0]\nclass = No"] ;
144 -> 146 ;
147 [label="gini = 0.0\nsamples = 1\nvalue = [0, 1]\nclass = Yes"] ;
141 -> 147 ;
148 [label="Wife_age <= 23.5\ngini = 0.447\nsamples = 86\nvalue = [29, 57]\nclass = Yes"] ;
122 -> 148 ;
149 [label="Husband_education <= 2.5\ngini = 0.498\nsamples = 15\nvalue = [8, 7]\nclass = No"] ;
148 -> 149 ;
150 [label="gini = 0.0\nsamples = 2\nvalue = [0, 2]\nclass = Yes"] ;
149 -> 150 ;
151 [label="No_of_children_born <= 1.5\ngini = 0.473\nsamples = 13\nvalue = [8, 5]\nclass = No"] ;
149 -> 151 ;
152 [label="Wife_Working <= 0.5\ngini = 0.444\nsamples = 6\nvalue = [4, 2]\nclass = No"] ;
151 -> 152 ;
153 [label="Wife_ education <= 3.5\ngini = 0.444\nsamples = 3\nvalue = [1, 2]\nclass = Yes"] ;
152 -> 153 ;
154 [label="gini = 0.0\nsamples = 1\nvalue = [0, 1]\nclass = Yes"] ;
153 -> 154 ;
155 [label="Husband_Occupation <= 2.5\ngini = 0.5\nsamples = 2\nvalue = [1, 1]\nclass = No"] ;
153 -> 155 ;
156 [label="gini = 0.0\nsamples = 1\nvalue = [1, 0]\nclass = No"] ;
155 -> 156 ;
157 [label="gini = 0.0\nsamples = 1\nvalue = [0, 1]\nclass = Yes"] ;
155 -> 157 ;
158 [label="gini = 0.0\nsamples = 3\nvalue = [3, 0]\nclass = No"] ;
152 -> 158 ;
159 [label="Standard_of_living_index <= 3.5\ngini = 0.49\nsamples = 7\nvalue = [4, 3]\nclass = No"] ;
151 -> 159 ;
160 [label="gini = 0.0\nsamples = 2\nvalue = [2, 0]\nclass = No"] ;
159 -> 160 ;
161 [label="Wife_Working <= 0.5\ngini = 0.48\nsamples = 5\nvalue = [2, 3]\nclass = Yes"] ;
159 -> 161 ;
162 [label="Husband_Occupation <= 2.5\ngini = 0.444\nsamples = 3\nvalue = [2, 1]\nclass = No"] ;
161 -> 162 ;
163 [label="gini = 0.0\nsamples = 1\nvalue = [1, 0]\nclass = No"] ;
162 -> 163 ;
164 [label="Wife_ education <= 3.5\ngini = 0.5\nsamples = 2\nvalue = [1, 1]\nclass = No"] ;
162 -> 164 ;
165 [label="gini = 0.0\nsamples = 1\nvalue = [1, 0]\nclass = No"] ;
164 -> 165 ;
166 [label="gini = 0.0\nsamples = 1\nvalue = [0, 1]\nclass = Yes"] ;
164 -> 166 ;
167 [label="gini = 0.0\nsamples = 2\nvalue = [0, 2]\nclass = Yes"] ;
161 -> 167 ;
168 [label="No_of_children_born <= 1.5\ngini = 0.417\nsamples = 71\nvalue = [21, 50]\nclass = Yes"] ;
148 -> 168 ;
169 [label="Wife_age <= 24.5\ngini = 0.48\nsamples = 30\nvalue = [12, 18]\nclass = Yes"] ;
168 -> 169 ;
170 [label="Husband_Occupation <= 1.5\ngini = 0.245\nsamples = 7\nvalue = [1, 6]\nclass = Yes"] ;
169 -> 170 ;
171 [label="Standard_of_living_index <= 3.5\ngini = 0.5\nsamples = 2\nvalue = [1, 1]\nclass = No"] ;
170 -> 171 ;
172 [label="gini = 0.0\nsamples = 1\nvalue = [1, 0]\nclass = No"] ;
171 -> 172 ;
173 [label="gini = 0.0\nsamples = 1\nvalue = [0, 1]\nclass = Yes"] ;
171 -> 173 ;
174 [label="gini = 0.0\nsamples = 5\nvalue = [0, 5]\nclass = Yes"] ;
170 -> 174 ;
175 [label="Wife_age <= 25.5\ngini = 0.499\nsamples = 23\nvalue = [11, 12]\nclass = Yes"] ;
169 -> 175 ;
176 [label="Husband_Occupation <= 1.5\ngini = 0.408\nsamples = 7\nvalue = [5, 2]\nclass = No"] ;
175 -> 176 ;
177 [label="gini = 0.0\nsamples = 2\nvalue = [0, 2]\nclass = Yes"] ;
176 -> 177 ;
178 [label="gini = 0.0\nsamples = 5\nvalue = [5, 0]\nclass = No"] ;
176 -> 178 ;
179 [label="Wife_age <= 27.5\ngini = 0.469\nsamples = 16\nvalue = [6, 10]\nclass = Yes"] ;
175 -> 179 ;
180 [label="Wife_religion <= 0.5\ngini = 0.32\nsamples = 10\nvalue = [2, 8]\nclass = Yes"] ;
179 -> 180 ;
181 [label="Husband_Occupation <= 2.5\ngini = 0.444\nsamples = 6\nvalue = [2, 4]\nclass = Yes"] ;
180 -> 181 ;
182 [label="Husband_Occupation <= 1.5\ngini = 0.32\nsamples = 5\nvalue = [1, 4]\nclass = Yes"] ;
181 -> 182 ;
183 [label="gini = 0.0\nsamples = 2\nvalue = [0, 2]\nclass = Yes"] ;
182 -> 183 ;
184 [label="Wife_Working <= 0.5\ngini = 0.444\nsamples = 3\nvalue = [1, 2]\nclass = Yes"] ;
182 -> 184 ;
185 [label="gini = 0.0\nsamples = 1\nvalue = [0, 1]\nclass = Yes"] ;
184 -> 185 ;
186 [label="Wife_ education <= 3.5\ngini = 0.5\nsamples = 2\nvalue = [1, 1]\nclass = No"] ;
184 -> 186 ;
187 [label="gini = 0.0\nsamples = 1\nvalue = [0, 1]\nclass = Yes"] ;
186 -> 187 ;
188 [label="gini = 0.0\nsamples = 1\nvalue = [1, 0]\nclass = No"] ;
186 -> 188 ;
189 [label="gini = 0.0\nsamples = 1\nvalue = [1, 0]\nclass = No"] ;
181 -> 189 ;
190 [label="gini = 0.0\nsamples = 4\nvalue = [0, 4]\nclass = Yes"] ;
180 -> 190 ;
191 [label="Husband_education <= 3.5\ngini = 0.444\nsamples = 6\nvalue = [4, 2]\nclass = No"] ;
179 -> 191 ;
192 [label="gini = 0.0\nsamples = 1\nvalue = [0, 1]\nclass = Yes"] ;
191 -> 192 ;
193 [label="Wife_religion <= 0.5\ngini = 0.32\nsamples = 5\nvalue = [4, 1]\nclass = No"] ;
191 -> 193 ;
194 [label="gini = 0.0\nsamples = 2\nvalue = [2, 0]\nclass = No"] ;
193 -> 194 ;
195 [label="Wife_age <= 28.5\ngini = 0.444\nsamples = 3\nvalue = [2, 1]\nclass = No"] ;
193 -> 195 ;
196 [label="Wife_Working <= 0.5\ngini = 0.5\nsamples = 2\nvalue = [1, 1]\nclass = No"] ;
195 -> 196 ;
197 [label="gini = 0.0\nsamples = 1\nvalue = [0, 1]\nclass = Yes"] ;
196 -> 197 ;
198 [label="gini = 0.0\nsamples = 1\nvalue = [1, 0]\nclass = No"] ;
196 -> 198 ;
199 [label="gini = 0.0\nsamples = 1\nvalue = [1, 0]\nclass = No"] ;
195 -> 199 ;
200 [label="Wife_ education <= 3.5\ngini = 0.343\nsamples = 41\nvalue = [9, 32]\nclass = Yes"] ;
168 -> 200 ;
201 [label="Wife_age <= 28.5\ngini = 0.457\nsamples = 17\nvalue = [6, 11]\nclass = Yes"] ;
200 -> 201 ;
202 [label="Wife_age <= 24.5\ngini = 0.408\nsamples = 14\nvalue = [4, 10]\nclass = Yes"] ;
201 -> 202 ;
203 [label="Standard_of_living_index <= 3.5\ngini = 0.5\nsamples = 4\nvalue = [2, 2]\nclass = No"] ;
202 -> 203 ;
204 [label="Husband_education <= 3.5\ngini = 0.444\nsamples = 3\nvalue = [1, 2]\nclass = Yes"] ;
203 -> 204 ;
205 [label="gini = 0.5\nsamples = 2\nvalue = [1, 1]\nclass = No"] ;
204 -> 205 ;
206 [label="gini = 0.0\nsamples = 1\nvalue = [0, 1]\nclass = Yes"] ;
204 -> 206 ;
207 [label="gini = 0.0\nsamples = 1\nvalue = [1, 0]\nclass = No"] ;
203 -> 207 ;
208 [label="Husband_education <= 3.5\ngini = 0.32\nsamples = 10\nvalue = [2, 8]\nclass = Yes"] ;
202 -> 208 ;
209 [label="gini = 0.0\nsamples = 3\nvalue = [0, 3]\nclass = Yes"] ;
208 -> 209 ;
210 [label="Wife_age <= 27.5\ngini = 0.408\nsamples = 7\nvalue = [2, 5]\nclass = Yes"] ;
208 -> 210 ;
211 [label="Husband_Occupation <= 2.0\ngini = 0.48\nsamples = 5\nvalue = [2, 3]\nclass = Yes"] ;
210 -> 211 ;
212 [label="Wife_age <= 26.5\ngini = 0.444\nsamples = 3\nvalue = [1, 2]\nclass = Yes"] ;
211 -> 212 ;
213 [label="gini = 0.0\nsamples = 1\nvalue = [0, 1]\nclass = Yes"] ;
212 -> 213 ;
214 [label="gini = 0.5\nsamples = 2\nvalue = [1, 1]\nclass = No"] ;
212 -> 214 ;
215 [label="gini = 0.5\nsamples = 2\nvalue = [1, 1]\nclass = No"] ;
211 -> 215 ;
216 [label="gini = 0.0\nsamples = 2\nvalue = [0, 2]\nclass = Yes"] ;
210 -> 216 ;
217 [label="Husband_Occupation <= 2.0\ngini = 0.444\nsamples = 3\nvalue = [2, 1]\nclass = No"] ;
201 -> 217 ;
218 [label="Standard_of_living_index <= 3.5\ngini = 0.5\nsamples = 2\nvalue = [1, 1]\nclass = No"] ;
217 -> 218 ;
219 [label="gini = 0.0\nsamples = 1\nvalue = [1, 0]\nclass = No"] ;
218 -> 219 ;
220 [label="gini = 0.0\nsamples = 1\nvalue = [0, 1]\nclass = Yes"] ;
218 -> 220 ;
221 [label="gini = 0.0\nsamples = 1\nvalue = [1, 0]\nclass = No"] ;
217 -> 221 ;
222 [label="Husband_Occupation <= 1.5\ngini = 0.219\nsamples = 24\nvalue = [3, 21]\nclass = Yes"] ;
200 -> 222 ;
223 [label="Wife_age <= 25.5\ngini = 0.32\nsamples = 15\nvalue = [3, 12]\nclass = Yes"] ;
222 -> 223 ;
224 [label="gini = 0.0\nsamples = 4\nvalue = [0, 4]\nclass = Yes"] ;
223 -> 224 ;
225 [label="Wife_religion <= 0.5\ngini = 0.397\nsamples = 11\nvalue = [3, 8]\nclass = Yes"] ;
223 -> 225 ;
226 [label="gini = 0.0\nsamples = 2\nvalue = [0, 2]\nclass = Yes"] ;
225 -> 226 ;
227 [label="Wife_age <= 28.5\ngini = 0.444\nsamples = 9\nvalue = [3, 6]\nclass = Yes"] ;
225 -> 227 ;
228 [label="Wife_Working <= 0.5\ngini = 0.49\nsamples = 7\nvalue = [3, 4]\nclass = Yes"] ;
227 -> 228 ;
229 [label="Standard_of_living_index <= 3.5\ngini = 0.444\nsamples = 3\nvalue = [2, 1]\nclass = No"] ;
228 -> 229 ;
230 [label="gini = 0.0\nsamples = 2\nvalue = [2, 0]\nclass = No"] ;
229 -> 230 ;
231 [label="gini = 0.0\nsamples = 1\nvalue = [0, 1]\nclass = Yes"] ;
229 -> 231 ;
232 [label="Standard_of_living_index <= 3.5\ngini = 0.375\nsamples = 4\nvalue = [1, 3]\nclass = Yes"] ;
228 -> 232 ;
233 [label="gini = 0.0\nsamples = 2\nvalue = [0, 2]\nclass = Yes"] ;
232 -> 233 ;
234 [label="Wife_age <= 26.5\ngini = 0.5\nsamples = 2\nvalue = [1, 1]\nclass = No"] ;
232 -> 234 ;
235 [label="gini = 0.0\nsamples = 1\nvalue = [0, 1]\nclass = Yes"] ;
234 -> 235 ;
236 [label="gini = 0.0\nsamples = 1\nvalue = [1, 0]\nclass = No"] ;
234 -> 236 ;
237 [label="gini = 0.0\nsamples = 2\nvalue = [0, 2]\nclass = Yes"] ;
227 -> 237 ;
238 [label="gini = 0.0\nsamples = 9\nvalue = [0, 9]\nclass = Yes"] ;
222 -> 238 ;
239 [label="Standard_of_living_index <= 1.5\ngini = 0.198\nsamples = 9\nvalue = [1, 8]\nclass = Yes"] ;
81 -> 239 ;
240 [label="gini = 0.0\nsamples = 1\nvalue = [1, 0]\nclass = No"] ;
239 -> 240 ;
241 [label="gini = 0.0\nsamples = 8\nvalue = [0, 8]\nclass = Yes"] ;
239 -> 241 ;
242 [label="Wife_religion <= 0.5\ngini = 0.346\nsamples = 9\nvalue = [7, 2]\nclass = No"] ;
80 -> 242 ;
243 [label="gini = 0.0\nsamples = 1\nvalue = [0, 1]\nclass = Yes"] ;
242 -> 243 ;
244 [label="Wife_Working <= 0.5\ngini = 0.219\nsamples = 8\nvalue = [7, 1]\nclass = No"] ;
242 -> 244 ;
245 [label="gini = 0.0\nsamples = 5\nvalue = [5, 0]\nclass = No"] ;
244 -> 245 ;
246 [label="No_of_children_born <= 1.5\ngini = 0.444\nsamples = 3\nvalue = [2, 1]\nclass = No"] ;
244 -> 246 ;
247 [label="gini = 0.0\nsamples = 1\nvalue = [1, 0]\nclass = No"] ;
246 -> 247 ;
248 [label="Husband_Occupation <= 2.5\ngini = 0.5\nsamples = 2\nvalue = [1, 1]\nclass = No"] ;
246 -> 248 ;
249 [label="gini = 0.0\nsamples = 1\nvalue = [1, 0]\nclass = No"] ;
248 -> 249 ;
250 [label="gini = 0.0\nsamples = 1\nvalue = [0, 1]\nclass = Yes"] ;
248 -> 250 ;
251 [label="No_of_children_born <= 1.5\ngini = 0.308\nsamples = 21\nvalue = [4, 17]\nclass = Yes"] ;
79 -> 251 ;
252 [label="Husband_Occupation <= 1.5\ngini = 0.5\nsamples = 6\nvalue = [3, 3]\nclass = No"] ;
251 -> 252 ;
253 [label="gini = 0.0\nsamples = 3\nvalue = [3, 0]\nclass = No"] ;
252 -> 253 ;
254 [label="gini = 0.0\nsamples = 3\nvalue = [0, 3]\nclass = Yes"] ;
252 -> 254 ;
255 [label="Standard_of_living_index <= 3.5\ngini = 0.124\nsamples = 15\nvalue = [1, 14]\nclass = Yes"] ;
251 -> 255 ;
256 [label="Husband_education <= 3.5\ngini = 0.219\nsamples = 8\nvalue = [1, 7]\nclass = Yes"] ;
255 -> 256 ;
257 [label="gini = 0.0\nsamples = 4\nvalue = [0, 4]\nclass = Yes"] ;
256 -> 257 ;
258 [label="Husband_Occupation <= 1.5\ngini = 0.375\nsamples = 4\nvalue = [1, 3]\nclass = Yes"] ;
256 -> 258 ;
259 [label="gini = 0.0\nsamples = 1\nvalue = [0, 1]\nclass = Yes"] ;
258 -> 259 ;
260 [label="Wife_ education <= 3.5\ngini = 0.444\nsamples = 3\nvalue = [1, 2]\nclass = Yes"] ;
258 -> 260 ;
261 [label="gini = 0.0\nsamples = 1\nvalue = [0, 1]\nclass = Yes"] ;
260 -> 261 ;
262 [label="gini = 0.5\nsamples = 2\nvalue = [1, 1]\nclass = No"] ;
260 -> 262 ;
263 [label="gini = 0.0\nsamples = 7\nvalue = [0, 7]\nclass = Yes"] ;
255 -> 263 ;
264 [label="No_of_children_born <= 1.5\ngini = 0.482\nsamples = 47\nvalue = [28, 19]\nclass = No"] ;
78 -> 264 ;
265 [label="Wife_religion <= 0.5\ngini = 0.26\nsamples = 13\nvalue = [11, 2]\nclass = No"] ;
264 -> 265 ;
266 [label="Husband_Occupation <= 1.5\ngini = 0.444\nsamples = 6\nvalue = [4, 2]\nclass = No"] ;
265 -> 266 ;
267 [label="gini = 0.0\nsamples = 2\nvalue = [0, 2]\nclass = Yes"] ;
266 -> 267 ;
268 [label="gini = 0.0\nsamples = 4\nvalue = [4, 0]\nclass = No"] ;
266 -> 268 ;
269 [label="gini = 0.0\nsamples = 7\nvalue = [7, 0]\nclass = No"] ;
265 -> 269 ;
270 [label="Husband_Occupation <= 2.5\ngini = 0.5\nsamples = 34\nvalue = [17, 17]\nclass = No"] ;
264 -> 270 ;
271 [label="Husband_education <= 3.5\ngini = 0.486\nsamples = 24\nvalue = [14, 10]\nclass = No"] ;
270 -> 271 ;
272 [label="gini = 0.0\nsamples = 2\nvalue = [2, 0]\nclass = No"] ;
271 -> 272 ;
273 [label="Wife_age <= 40.5\ngini = 0.496\nsamples = 22\nvalue = [12, 10]\nclass = No"] ;
271 -> 273 ;
274 [label="Wife_religion <= 0.5\ngini = 0.499\nsamples = 21\nvalue = [11, 10]\nclass = No"] ;
273 -> 274 ;
275 [label="Standard_of_living_index <= 3.5\ngini = 0.444\nsamples = 6\nvalue = [4, 2]\nclass = No"] ;
274 -> 275 ;
276 [label="gini = 0.0\nsamples = 1\nvalue = [0, 1]\nclass = Yes"] ;
275 -> 276 ;
277 [label="Wife_Working <= 0.5\ngini = 0.32\nsamples = 5\nvalue = [4, 1]\nclass = No"] ;
275 -> 277 ;
278 [label="gini = 0.0\nsamples = 4\nvalue = [4, 0]\nclass = No"] ;
277 -> 278 ;
279 [label="gini = 0.0\nsamples = 1\nvalue = [0, 1]\nclass = Yes"] ;
277 -> 279 ;
280 [label="Standard_of_living_index <= 3.5\ngini = 0.498\nsamples = 15\nvalue = [7, 8]\nclass = Yes"] ;
274 -> 280 ;
281 [label="Wife_age <= 38.5\ngini = 0.375\nsamples = 4\nvalue = [3, 1]\nclass = No"] ;
280 -> 281 ;
282 [label="gini = 0.0\nsamples = 3\nvalue = [3, 0]\nclass = No"] ;
281 -> 282 ;
283 [label="gini = 0.0\nsamples = 1\nvalue = [0, 1]\nclass = Yes"] ;
281 -> 283 ;
284 [label="Wife_Working <= 0.5\ngini = 0.463\nsamples = 11\nvalue = [4, 7]\nclass = Yes"] ;
280 -> 284 ;
285 [label="Wife_age <= 33.5\ngini = 0.278\nsamples = 6\nvalue = [1, 5]\nclass = Yes"] ;
284 -> 285 ;
286 [label="Husband_Occupation <= 1.5\ngini = 0.5\nsamples = 2\nvalue = [1, 1]\nclass = No"] ;
285 -> 286 ;
287 [label="gini = 0.0\nsamples = 1\nvalue = [1, 0]\nclass = No"] ;
286 -> 287 ;
288 [label="gini = 0.0\nsamples = 1\nvalue = [0, 1]\nclass = Yes"] ;
286 -> 288 ;
289 [label="gini = 0.0\nsamples = 4\nvalue = [0, 4]\nclass = Yes"] ;
285 -> 289 ;
290 [label="Wife_age <= 33.5\ngini = 0.48\nsamples = 5\nvalue = [3, 2]\nclass = No"] ;
284 -> 290 ;
291 [label="gini = 0.0\nsamples = 1\nvalue = [0, 1]\nclass = Yes"] ;
290 -> 291 ;
292 [label="Wife_age <= 36.5\ngini = 0.375\nsamples = 4\nvalue = [3, 1]\nclass = No"] ;
290 -> 292 ;
293 [label="gini = 0.0\nsamples = 2\nvalue = [2, 0]\nclass = No"] ;
292 -> 293 ;
294 [label="Wife_age <= 38.5\ngini = 0.5\nsamples = 2\nvalue = [1, 1]\nclass = No"] ;
292 -> 294 ;
295 [label="gini = 0.0\nsamples = 1\nvalue = [0, 1]\nclass = Yes"] ;
294 -> 295 ;
296 [label="gini = 0.0\nsamples = 1\nvalue = [1, 0]\nclass = No"] ;
294 -> 296 ;
297 [label="gini = 0.0\nsamples = 1\nvalue = [1, 0]\nclass = No"] ;
273 -> 297 ;
298 [label="Wife_age <= 34.5\ngini = 0.42\nsamples = 10\nvalue = [3, 7]\nclass = Yes"] ;
270 -> 298 ;
299 [label="gini = 0.0\nsamples = 2\nvalue = [0, 2]\nclass = Yes"] ;
298 -> 299 ;
300 [label="Wife_age <= 36.5\ngini = 0.469\nsamples = 8\nvalue = [3, 5]\nclass = Yes"] ;
298 -> 300 ;
301 [label="Husband_education <= 3.5\ngini = 0.444\nsamples = 3\nvalue = [2, 1]\nclass = No"] ;
300 -> 301 ;
302 [label="gini = 0.0\nsamples = 1\nvalue = [0, 1]\nclass = Yes"] ;
301 -> 302 ;
303 [label="gini = 0.0\nsamples = 2\nvalue = [2, 0]\nclass = No"] ;
301 -> 303 ;
304 [label="Wife_age <= 39.5\ngini = 0.32\nsamples = 5\nvalue = [1, 4]\nclass = Yes"] ;
300 -> 304 ;
305 [label="gini = 0.0\nsamples = 3\nvalue = [0, 3]\nclass = Yes"] ;
304 -> 305 ;
306 [label="Wife_ education <= 3.5\ngini = 0.5\nsamples = 2\nvalue = [1, 1]\nclass = No"] ;
304 -> 306 ;
307 [label="gini = 0.0\nsamples = 1\nvalue = [0, 1]\nclass = Yes"] ;
306 -> 307 ;
308 [label="gini = 0.0\nsamples = 1\nvalue = [1, 0]\nclass = No"] ;
306 -> 308 ;
309 [label="Husband_education <= 3.5\ngini = 0.371\nsamples = 406\nvalue = [100, 306]\nclass = Yes"] ;
9 -> 309 ;
310 [label="Wife_age <= 35.5\ngini = 0.448\nsamples = 171\nvalue = [58, 113]\nclass = Yes"] ;
309 -> 310 ;
311 [label="Wife_age <= 20.5\ngini = 0.375\nsamples = 128\nvalue = [32, 96]\nclass = Yes"] ;
310 -> 311 ;
312 [label="gini = 0.0\nsamples = 2\nvalue = [2, 0]\nclass = No"] ;
311 -> 312 ;
313 [label="Husband_education <= 1.5\ngini = 0.363\nsamples = 126\nvalue = [30, 96]\nclass = Yes"] ;
311 -> 313 ;
314 [label="Wife_ education <= 1.5\ngini = 0.5\nsamples = 8\nvalue = [4, 4]\nclass = No"] ;
313 -> 314 ;
315 [label="Standard_of_living_index <= 2.5\ngini = 0.32\nsamples = 5\nvalue = [4, 1]\nclass = No"] ;
314 -> 315 ;
316 [label="gini = 0.0\nsamples = 4\nvalue = [4, 0]\nclass = No"] ;
315 -> 316 ;
317 [label="gini = 0.0\nsamples = 1\nvalue = [0, 1]\nclass = Yes"] ;
315 -> 317 ;
318 [label="gini = 0.0\nsamples = 3\nvalue = [0, 3]\nclass = Yes"] ;
314 -> 318 ;
319 [label="Wife_age <= 27.5\ngini = 0.344\nsamples = 118\nvalue = [26, 92]\nclass = Yes"] ;
313 -> 319 ;
320 [label="Standard_of_living_index <= 3.5\ngini = 0.451\nsamples = 32\nvalue = [11, 21]\nclass = Yes"] ;
319 -> 320 ;
321 [label="No_of_children_born <= 5.5\ngini = 0.375\nsamples = 24\nvalue = [6, 18]\nclass = Yes"] ;
320 -> 321 ;
322 [label="Wife_age <= 21.5\ngini = 0.34\nsamples = 23\nvalue = [5, 18]\nclass = Yes"] ;
321 -> 322 ;
323 [label="gini = 0.0\nsamples = 1\nvalue = [1, 0]\nclass = No"] ;
322 -> 323 ;
324 [label="Wife_ education <= 1.5\ngini = 0.298\nsamples = 22\nvalue = [4, 18]\nclass = Yes"] ;
322 -> 324 ;
325 [label="gini = 0.0\nsamples = 6\nvalue = [0, 6]\nclass = Yes"] ;
324 -> 325 ;
326 [label="No_of_children_born <= 4.5\ngini = 0.375\nsamples = 16\nvalue = [4, 12]\nclass = Yes"] ;
324 -> 326 ;
327 [label="Wife_age <= 23.5\ngini = 0.444\nsamples = 12\nvalue = [4, 8]\nclass = Yes"] ;
326 -> 327 ;
328 [label="gini = 0.0\nsamples = 2\nvalue = [0, 2]\nclass = Yes"] ;
327 -> 328 ;
329 [label="Husband_education <= 2.5\ngini = 0.48\nsamples = 10\nvalue = [4, 6]\nclass = Yes"] ;
327 -> 329 ;
330 [label="Media_exposure  <= 0.5\ngini = 0.444\nsamples = 3\nvalue = [2, 1]\nclass = No"] ;
329 -> 330 ;
331 [label="gini = 0.0\nsamples = 1\nvalue = [0, 1]\nclass = Yes"] ;
330 -> 331 ;
332 [label="gini = 0.0\nsamples = 2\nvalue = [2, 0]\nclass = No"] ;
330 -> 332 ;
333 [label="Husband_Occupation <= 2.5\ngini = 0.408\nsamples = 7\nvalue = [2, 5]\nclass = Yes"] ;
329 -> 333 ;
334 [label="Wife_age <= 26.5\ngini = 0.444\nsamples = 3\nvalue = [2, 1]\nclass = No"] ;
333 -> 334 ;
335 [label="gini = 0.0\nsamples = 2\nvalue = [2, 0]\nclass = No"] ;
334 -> 335 ;
336 [label="gini = 0.0\nsamples = 1\nvalue = [0, 1]\nclass = Yes"] ;
334 -> 336 ;
337 [label="gini = 0.0\nsamples = 4\nvalue = [0, 4]\nclass = Yes"] ;
333 -> 337 ;
338 [label="gini = 0.0\nsamples = 4\nvalue = [0, 4]\nclass = Yes"] ;
326 -> 338 ;
339 [label="gini = 0.0\nsamples = 1\nvalue = [1, 0]\nclass = No"] ;
321 -> 339 ;
340 [label="Wife_age <= 23.5\ngini = 0.469\nsamples = 8\nvalue = [5, 3]\nclass = No"] ;
320 -> 340 ;
341 [label="gini = 0.0\nsamples = 1\nvalue = [0, 1]\nclass = Yes"] ;
340 -> 341 ;
342 [label="Wife_ education <= 2.5\ngini = 0.408\nsamples = 7\nvalue = [5, 2]\nclass = No"] ;
340 -> 342 ;
343 [label="gini = 0.0\nsamples = 4\nvalue = [4, 0]\nclass = No"] ;
342 -> 343 ;
344 [label="Wife_Working <= 0.5\ngini = 0.444\nsamples = 3\nvalue = [1, 2]\nclass = Yes"] ;
342 -> 344 ;
345 [label="gini = 0.0\nsamples = 2\nvalue = [0, 2]\nclass = Yes"] ;
344 -> 345 ;
346 [label="gini = 0.0\nsamples = 1\nvalue = [1, 0]\nclass = No"] ;
344 -> 346 ;
347 [label="Wife_age <= 33.5\ngini = 0.288\nsamples = 86\nvalue = [15, 71]\nclass = Yes"] ;
319 -> 347 ;
348 [label="Wife_religion <= 0.5\ngini = 0.251\nsamples = 68\nvalue = [10, 58]\nclass = Yes"] ;
347 -> 348 ;
349 [label="Standard_of_living_index <= 3.5\ngini = 0.48\nsamples = 5\nvalue = [2, 3]\nclass = Yes"] ;
348 -> 349 ;
350 [label="gini = 0.0\nsamples = 2\nvalue = [0, 2]\nclass = Yes"] ;
349 -> 350 ;
351 [label="Husband_education <= 2.5\ngini = 0.444\nsamples = 3\nvalue = [2, 1]\nclass = No"] ;
349 -> 351 ;
352 [label="gini = 0.0\nsamples = 1\nvalue = [1, 0]\nclass = No"] ;
351 -> 352 ;
353 [label="Wife_Working <= 0.5\ngini = 0.5\nsamples = 2\nvalue = [1, 1]\nclass = No"] ;
351 -> 353 ;
354 [label="gini = 0.0\nsamples = 1\nvalue = [1, 0]\nclass = No"] ;
353 -> 354 ;
355 [label="gini = 0.0\nsamples = 1\nvalue = [0, 1]\nclass = Yes"] ;
353 -> 355 ;
356 [label="Wife_ education <= 1.5\ngini = 0.222\nsamples = 63\nvalue = [8, 55]\nclass = Yes"] ;
348 -> 356 ;
357 [label="Standard_of_living_index <= 3.5\ngini = 0.375\nsamples = 8\nvalue = [2, 6]\nclass = Yes"] ;
356 -> 357 ;
358 [label="Standard_of_living_index <= 2.5\ngini = 0.245\nsamples = 7\nvalue = [1, 6]\nclass = Yes"] ;
357 -> 358 ;
359 [label="Standard_of_living_index <= 1.5\ngini = 0.5\nsamples = 2\nvalue = [1, 1]\nclass = No"] ;
358 -> 359 ;
360 [label="gini = 0.0\nsamples = 1\nvalue = [0, 1]\nclass = Yes"] ;
359 -> 360 ;
361 [label="gini = 0.0\nsamples = 1\nvalue = [1, 0]\nclass = No"] ;
359 -> 361 ;
362 [label="gini = 0.0\nsamples = 5\nvalue = [0, 5]\nclass = Yes"] ;
358 -> 362 ;
363 [label="gini = 0.0\nsamples = 1\nvalue = [1, 0]\nclass = No"] ;
357 -> 363 ;
364 [label="Wife_ education <= 2.5\ngini = 0.194\nsamples = 55\nvalue = [6, 49]\nclass = Yes"] ;
356 -> 364 ;
365 [label="No_of_children_born <= 4.5\ngini = 0.111\nsamples = 34\nvalue = [2, 32]\nclass = Yes"] ;
364 -> 365 ;
366 [label="Standard_of_living_index <= 1.5\ngini = 0.245\nsamples = 14\nvalue = [2, 12]\nclass = Yes"] ;
365 -> 366 ;
367 [label="Husband_education <= 2.5\ngini = 0.5\nsamples = 2\nvalue = [1, 1]\nclass = No"] ;
366 -> 367 ;
368 [label="gini = 0.0\nsamples = 1\nvalue = [0, 1]\nclass = Yes"] ;
367 -> 368 ;
369 [label="gini = 0.0\nsamples = 1\nvalue = [1, 0]\nclass = No"] ;
367 -> 369 ;
370 [label="Husband_education <= 2.5\ngini = 0.153\nsamples = 12\nvalue = [1, 11]\nclass = Yes"] ;
366 -> 370 ;
371 [label="Husband_Occupation <= 2.5\ngini = 0.32\nsamples = 5\nvalue = [1, 4]\nclass = Yes"] ;
370 -> 371 ;
372 [label="gini = 0.0\nsamples = 3\nvalue = [0, 3]\nclass = Yes"] ;
371 -> 372 ;
373 [label="Husband_Occupation <= 3.5\ngini = 0.5\nsamples = 2\nvalue = [1, 1]\nclass = No"] ;
371 -> 373 ;
374 [label="gini = 0.0\nsamples = 1\nvalue = [1, 0]\nclass = No"] ;
373 -> 374 ;
375 [label="gini = 0.0\nsamples = 1\nvalue = [0, 1]\nclass = Yes"] ;
373 -> 375 ;
376 [label="gini = 0.0\nsamples = 7\nvalue = [0, 7]\nclass = Yes"] ;
370 -> 376 ;
377 [label="gini = 0.0\nsamples = 20\nvalue = [0, 20]\nclass = Yes"] ;
365 -> 377 ;
378 [label="No_of_children_born <= 4.5\ngini = 0.308\nsamples = 21\nvalue = [4, 17]\nclass = Yes"] ;
364 -> 378 ;
379 [label="Wife_age <= 32.5\ngini = 0.124\nsamples = 15\nvalue = [1, 14]\nclass = Yes"] ;
378 -> 379 ;
380 [label="gini = 0.0\nsamples = 11\nvalue = [0, 11]\nclass = Yes"] ;
379 -> 380 ;
381 [label="Standard_of_living_index <= 3.5\ngini = 0.375\nsamples = 4\nvalue = [1, 3]\nclass = Yes"] ;
379 -> 381 ;
382 [label="gini = 0.0\nsamples = 3\nvalue = [0, 3]\nclass = Yes"] ;
381 -> 382 ;
383 [label="gini = 0.0\nsamples = 1\nvalue = [1, 0]\nclass = No"] ;
381 -> 383 ;
384 [label="Wife_age <= 31.0\ngini = 0.5\nsamples = 6\nvalue = [3, 3]\nclass = No"] ;
378 -> 384 ;
385 [label="gini = 0.0\nsamples = 2\nvalue = [2, 0]\nclass = No"] ;
384 -> 385 ;
386 [label="No_of_children_born <= 6.0\ngini = 0.375\nsamples = 4\nvalue = [1, 3]\nclass = Yes"] ;
384 -> 386 ;
387 [label="gini = 0.0\nsamples = 3\nvalue = [0, 3]\nclass = Yes"] ;
386 -> 387 ;
388 [label="gini = 0.0\nsamples = 1\nvalue = [1, 0]\nclass = No"] ;
386 -> 388 ;
389 [label="Wife_Working <= 0.5\ngini = 0.401\nsamples = 18\nvalue = [5, 13]\nclass = Yes"] ;
347 -> 389 ;
390 [label="Husband_education <= 2.5\ngini = 0.198\nsamples = 9\nvalue = [1, 8]\nclass = Yes"] ;
389 -> 390 ;
391 [label="gini = 0.0\nsamples = 4\nvalue = [0, 4]\nclass = Yes"] ;
390 -> 391 ;
392 [label="Standard_of_living_index <= 3.5\ngini = 0.32\nsamples = 5\nvalue = [1, 4]\nclass = Yes"] ;
390 -> 392 ;
393 [label="Wife_age <= 34.5\ngini = 0.5\nsamples = 2\nvalue = [1, 1]\nclass = No"] ;
392 -> 393 ;
394 [label="gini = 0.0\nsamples = 1\nvalue = [1, 0]\nclass = No"] ;
393 -> 394 ;
395 [label="gini = 0.0\nsamples = 1\nvalue = [0, 1]\nclass = Yes"] ;
393 -> 395 ;
396 [label="gini = 0.0\nsamples = 3\nvalue = [0, 3]\nclass = Yes"] ;
392 -> 396 ;
397 [label="Wife_age <= 34.5\ngini = 0.494\nsamples = 9\nvalue = [4, 5]\nclass = Yes"] ;
389 -> 397 ;
398 [label="gini = 0.0\nsamples = 3\nvalue = [3, 0]\nclass = No"] ;
397 -> 398 ;
399 [label="Standard_of_living_index <= 1.5\ngini = 0.278\nsamples = 6\nvalue = [1, 5]\nclass = Yes"] ;
397 -> 399 ;
400 [label="Wife_ education <= 1.5\ngini = 0.5\nsamples = 2\nvalue = [1, 1]\nclass = No"] ;
399 -> 400 ;
401 [label="gini = 0.0\nsamples = 1\nvalue = [0, 1]\nclass = Yes"] ;
400 -> 401 ;
402 [label="gini = 0.0\nsamples = 1\nvalue = [1, 0]\nclass = No"] ;
400 -> 402 ;
403 [label="gini = 0.0\nsamples = 4\nvalue = [0, 4]\nclass = Yes"] ;
399 -> 403 ;
404 [label="Husband_Occupation <= 1.5\ngini = 0.478\nsamples = 43\nvalue = [26, 17]\nclass = No"] ;
310 -> 404 ;
405 [label="Wife_age <= 37.5\ngini = 0.245\nsamples = 7\nvalue = [1, 6]\nclass = Yes"] ;
404 -> 405 ;
406 [label="gini = 0.0\nsamples = 4\nvalue = [0, 4]\nclass = Yes"] ;
405 -> 406 ;
407 [label="Wife_age <= 39.5\ngini = 0.444\nsamples = 3\nvalue = [1, 2]\nclass = Yes"] ;
405 -> 407 ;
408 [label="Standard_of_living_index <= 3.0\ngini = 0.5\nsamples = 2\nvalue = [1, 1]\nclass = No"] ;
407 -> 408 ;
409 [label="gini = 0.0\nsamples = 1\nvalue = [0, 1]\nclass = Yes"] ;
408 -> 409 ;
410 [label="gini = 0.0\nsamples = 1\nvalue = [1, 0]\nclass = No"] ;
408 -> 410 ;
411 [label="gini = 0.0\nsamples = 1\nvalue = [0, 1]\nclass = Yes"] ;
407 -> 411 ;
412 [label="Media_exposure  <= 0.5\ngini = 0.424\nsamples = 36\nvalue = [25, 11]\nclass = No"] ;
404 -> 412 ;
413 [label="gini = 0.0\nsamples = 6\nvalue = [6, 0]\nclass = No"] ;
412 -> 413 ;
414 [label="No_of_children_born <= 9.5\ngini = 0.464\nsamples = 30\nvalue = [19, 11]\nclass = No"] ;
412 -> 414 ;
415 [label="Husband_Occupation <= 3.5\ngini = 0.483\nsamples = 27\nvalue = [16, 11]\nclass = No"] ;
414 -> 415 ;
416 [label="No_of_children_born <= 8.5\ngini = 0.473\nsamples = 26\nvalue = [16, 10]\nclass = No"] ;
415 -> 416 ;
417 [label="Wife_ education <= 1.5\ngini = 0.461\nsamples = 25\nvalue = [16, 9]\nclass = No"] ;
416 -> 417 ;
418 [label="gini = 0.0\nsamples = 1\nvalue = [0, 1]\nclass = Yes"] ;
417 -> 418 ;
419 [label="Wife_religion <= 0.5\ngini = 0.444\nsamples = 24\nvalue = [16, 8]\nclass = No"] ;
417 -> 419 ;
420 [label="Standard_of_living_index <= 3.0\ngini = 0.444\nsamples = 3\nvalue = [1, 2]\nclass = Yes"] ;
419 -> 420 ;
421 [label="gini = 0.0\nsamples = 1\nvalue = [1, 0]\nclass = No"] ;
420 -> 421 ;
422 [label="gini = 0.0\nsamples = 2\nvalue = [0, 2]\nclass = Yes"] ;
420 -> 422 ;
423 [label="Wife_age <= 38.5\ngini = 0.408\nsamples = 21\nvalue = [15, 6]\nclass = No"] ;
419 -> 423 ;
424 [label="Wife_Working <= 0.5\ngini = 0.459\nsamples = 14\nvalue = [9, 5]\nclass = No"] ;
423 -> 424 ;
425 [label="No_of_children_born <= 3.5\ngini = 0.486\nsamples = 12\nvalue = [7, 5]\nclass = No"] ;
424 -> 425 ;
426 [label="gini = 0.0\nsamples = 1\nvalue = [0, 1]\nclass = Yes"] ;
425 -> 426 ;
427 [label="Husband_Occupation <= 2.5\ngini = 0.463\nsamples = 11\nvalue = [7, 4]\nclass = No"] ;
425 -> 427 ;
428 [label="Standard_of_living_index <= 2.5\ngini = 0.32\nsamples = 5\nvalue = [4, 1]\nclass = No"] ;
427 -> 428 ;
429 [label="gini = 0.0\nsamples = 1\nvalue = [0, 1]\nclass = Yes"] ;
428 -> 429 ;
430 [label="gini = 0.0\nsamples = 4\nvalue = [4, 0]\nclass = No"] ;
428 -> 430 ;
431 [label="Wife_age <= 37.5\ngini = 0.5\nsamples = 6\nvalue = [3, 3]\nclass = No"] ;
427 -> 431 ;
432 [label="No_of_children_born <= 7.5\ngini = 0.375\nsamples = 4\nvalue = [1, 3]\nclass = Yes"] ;
431 -> 432 ;
433 [label="gini = 0.0\nsamples = 3\nvalue = [0, 3]\nclass = Yes"] ;
432 -> 433 ;
434 [label="gini = 0.0\nsamples = 1\nvalue = [1, 0]\nclass = No"] ;
432 -> 434 ;
435 [label="gini = 0.0\nsamples = 2\nvalue = [2, 0]\nclass = No"] ;
431 -> 435 ;
436 [label="gini = 0.0\nsamples = 2\nvalue = [2, 0]\nclass = No"] ;
424 -> 436 ;
437 [label="Wife_ education <= 2.5\ngini = 0.245\nsamples = 7\nvalue = [6, 1]\nclass = No"] ;
423 -> 437 ;
438 [label="Husband_Occupation <= 2.5\ngini = 0.444\nsamples = 3\nvalue = [2, 1]\nclass = No"] ;
437 -> 438 ;
439 [label="gini = 0.0\nsamples = 2\nvalue = [2, 0]\nclass = No"] ;
438 -> 439 ;
440 [label="gini = 0.0\nsamples = 1\nvalue = [0, 1]\nclass = Yes"] ;
438 -> 440 ;
441 [label="gini = 0.0\nsamples = 4\nvalue = [4, 0]\nclass = No"] ;
437 -> 441 ;
442 [label="gini = 0.0\nsamples = 1\nvalue = [0, 1]\nclass = Yes"] ;
416 -> 442 ;
443 [label="gini = 0.0\nsamples = 1\nvalue = [0, 1]\nclass = Yes"] ;
415 -> 443 ;
444 [label="gini = 0.0\nsamples = 3\nvalue = [3, 0]\nclass = No"] ;
414 -> 444 ;
445 [label="Standard_of_living_index <= 2.5\ngini = 0.294\nsamples = 235\nvalue = [42, 193]\nclass = Yes"] ;
309 -> 445 ;
446 [label="Husband_Occupation <= 2.5\ngini = 0.469\nsamples = 32\nvalue = [12, 20]\nclass = Yes"] ;
445 -> 446 ;
447 [label="Wife_Working <= 0.5\ngini = 0.498\nsamples = 17\nvalue = [9, 8]\nclass = No"] ;
446 -> 447 ;
448 [label="Wife_religion <= 0.5\ngini = 0.498\nsamples = 15\nvalue = [7, 8]\nclass = Yes"] ;
447 -> 448 ;
449 [label="gini = 0.0\nsamples = 2\nvalue = [2, 0]\nclass = No"] ;
448 -> 449 ;
450 [label="Wife_age <= 26.0\ngini = 0.473\nsamples = 13\nvalue = [5, 8]\nclass = Yes"] ;
448 -> 450 ;
451 [label="gini = 0.0\nsamples = 2\nvalue = [2, 0]\nclass = No"] ;
450 -> 451 ;
452 [label="Standard_of_living_index <= 1.5\ngini = 0.397\nsamples = 11\nvalue = [3, 8]\nclass = Yes"] ;
450 -> 452 ;
453 [label="No_of_children_born <= 4.5\ngini = 0.48\nsamples = 5\nvalue = [3, 2]\nclass = No"] ;
452 -> 453 ;
454 [label="Wife_age <= 27.5\ngini = 0.444\nsamples = 3\nvalue = [1, 2]\nclass = Yes"] ;
453 -> 454 ;
455 [label="gini = 0.0\nsamples = 1\nvalue = [0, 1]\nclass = Yes"] ;
454 -> 455 ;
456 [label="Wife_age <= 29.0\ngini = 0.5\nsamples = 2\nvalue = [1, 1]\nclass = No"] ;
454 -> 456 ;
457 [label="gini = 0.0\nsamples = 1\nvalue = [1, 0]\nclass = No"] ;
456 -> 457 ;
458 [label="gini = 0.0\nsamples = 1\nvalue = [0, 1]\nclass = Yes"] ;
456 -> 458 ;
459 [label="gini = 0.0\nsamples = 2\nvalue = [2, 0]\nclass = No"] ;
453 -> 459 ;
460 [label="gini = 0.0\nsamples = 6\nvalue = [0, 6]\nclass = Yes"] ;
452 -> 460 ;
461 [label="gini = 0.0\nsamples = 2\nvalue = [2, 0]\nclass = No"] ;
447 -> 461 ;
462 [label="Wife_age <= 23.5\ngini = 0.32\nsamples = 15\nvalue = [3, 12]\nclass = Yes"] ;
446 -> 462 ;
463 [label="gini = 0.0\nsamples = 1\nvalue = [1, 0]\nclass = No"] ;
462 -> 463 ;
464 [label="Wife_age <= 31.5\ngini = 0.245\nsamples = 14\nvalue = [2, 12]\nclass = Yes"] ;
462 -> 464 ;
465 [label="Wife_age <= 30.0\ngini = 0.408\nsamples = 7\nvalue = [2, 5]\nclass = Yes"] ;
464 -> 465 ;
466 [label="Wife_age <= 27.5\ngini = 0.278\nsamples = 6\nvalue = [1, 5]\nclass = Yes"] ;
465 -> 466 ;
467 [label="Wife_age <= 25.5\ngini = 0.444\nsamples = 3\nvalue = [1, 2]\nclass = Yes"] ;
466 -> 467 ;
468 [label="gini = 0.0\nsamples = 2\nvalue = [0, 2]\nclass = Yes"] ;
467 -> 468 ;
469 [label="gini = 0.0\nsamples = 1\nvalue = [1, 0]\nclass = No"] ;
467 -> 469 ;
470 [label="gini = 0.0\nsamples = 3\nvalue = [0, 3]\nclass = Yes"] ;
466 -> 470 ;
471 [label="gini = 0.0\nsamples = 1\nvalue = [1, 0]\nclass = No"] ;
465 -> 471 ;
472 [label="gini = 0.0\nsamples = 7\nvalue = [0, 7]\nclass = Yes"] ;
464 -> 472 ;
473 [label="Wife_age <= 31.5\ngini = 0.252\nsamples = 203\nvalue = [30, 173]\nclass = Yes"] ;
445 -> 473 ;
474 [label="Wife_Working <= 0.5\ngini = 0.334\nsamples = 66\nvalue = [14, 52]\nclass = Yes"] ;
473 -> 474 ;
475 [label="Husband_Occupation <= 1.5\ngini = 0.245\nsamples = 49\nvalue = [7, 42]\nclass = Yes"] ;
474 -> 475 ;
476 [label="Wife_ education <= 3.5\ngini = 0.408\nsamples = 14\nvalue = [4, 10]\nclass = Yes"] ;
475 -> 476 ;
477 [label="gini = 0.0\nsamples = 7\nvalue = [0, 7]\nclass = Yes"] ;
476 -> 477 ;
478 [label="Wife_age <= 28.5\ngini = 0.49\nsamples = 7\nvalue = [4, 3]\nclass = No"] ;
476 -> 478 ;
479 [label="Standard_of_living_index <= 3.5\ngini = 0.444\nsamples = 6\nvalue = [4, 2]\nclass = No"] ;
478 -> 479 ;
480 [label="gini = 0.0\nsamples = 1\nvalue = [0, 1]\nclass = Yes"] ;
479 -> 480 ;
481 [label="Wife_age <= 25.5\ngini = 0.32\nsamples = 5\nvalue = [4, 1]\nclass = No"] ;
479 -> 481 ;
482 [label="No_of_children_born <= 3.5\ngini = 0.5\nsamples = 2\nvalue = [1, 1]\nclass = No"] ;
481 -> 482 ;
483 [label="gini = 0.0\nsamples = 1\nvalue = [0, 1]\nclass = Yes"] ;
482 -> 483 ;
484 [label="gini = 0.0\nsamples = 1\nvalue = [1, 0]\nclass = No"] ;
482 -> 484 ;
485 [label="gini = 0.0\nsamples = 3\nvalue = [3, 0]\nclass = No"] ;
481 -> 485 ;
486 [label="gini = 0.0\nsamples = 1\nvalue = [0, 1]\nclass = Yes"] ;
478 -> 486 ;
487 [label="Wife_age <= 22.5\ngini = 0.157\nsamples = 35\nvalue = [3, 32]\nclass = Yes"] ;
475 -> 487 ;
488 [label="Husband_Occupation <= 2.5\ngini = 0.444\nsamples = 3\nvalue = [1, 2]\nclass = Yes"] ;
487 -> 488 ;
489 [label="gini = 0.0\nsamples = 2\nvalue = [0, 2]\nclass = Yes"] ;
488 -> 489 ;
490 [label="gini = 0.0\nsamples = 1\nvalue = [1, 0]\nclass = No"] ;
488 -> 490 ;
491 [label="Wife_religion <= 0.5\ngini = 0.117\nsamples = 32\nvalue = [2, 30]\nclass = Yes"] ;
487 -> 491 ;
492 [label="No_of_children_born <= 3.5\ngini = 0.444\nsamples = 3\nvalue = [1, 2]\nclass = Yes"] ;
491 -> 492 ;
493 [label="gini = 0.0\nsamples = 2\nvalue = [0, 2]\nclass = Yes"] ;
492 -> 493 ;
494 [label="gini = 0.0\nsamples = 1\nvalue = [1, 0]\nclass = No"] ;
492 -> 494 ;
495 [label="Wife_ education <= 2.5\ngini = 0.067\nsamples = 29\nvalue = [1, 28]\nclass = Yes"] ;
491 -> 495 ;
496 [label="Wife_age <= 26.5\ngini = 0.198\nsamples = 9\nvalue = [1, 8]\nclass = Yes"] ;
495 -> 496 ;
497 [label="Wife_age <= 25.5\ngini = 0.32\nsamples = 5\nvalue = [1, 4]\nclass = Yes"] ;
496 -> 497 ;
498 [label="gini = 0.0\nsamples = 3\nvalue = [0, 3]\nclass = Yes"] ;
497 -> 498 ;
499 [label="gini = 0.5\nsamples = 2\nvalue = [1, 1]\nclass = No"] ;
497 -> 499 ;
500 [label="gini = 0.0\nsamples = 4\nvalue = [0, 4]\nclass = Yes"] ;
496 -> 500 ;
501 [label="gini = 0.0\nsamples = 20\nvalue = [0, 20]\nclass = Yes"] ;
495 -> 501 ;
502 [label="Husband_Occupation <= 2.5\ngini = 0.484\nsamples = 17\nvalue = [7, 10]\nclass = Yes"] ;
474 -> 502 ;
503 [label="No_of_children_born <= 4.5\ngini = 0.496\nsamples = 11\nvalue = [6, 5]\nclass = No"] ;
502 -> 503 ;
504 [label="Wife_ education <= 2.5\ngini = 0.48\nsamples = 10\nvalue = [6, 4]\nclass = No"] ;
503 -> 504 ;
505 [label="gini = 0.0\nsamples = 1\nvalue = [1, 0]\nclass = No"] ;
504 -> 505 ;
506 [label="Husband_Occupation <= 1.5\ngini = 0.494\nsamples = 9\nvalue = [5, 4]\nclass = No"] ;
504 -> 506 ;
507 [label="Wife_religion <= 0.5\ngini = 0.48\nsamples = 5\nvalue = [2, 3]\nclass = Yes"] ;
506 -> 507 ;
508 [label="gini = 0.0\nsamples = 1\nvalue = [1, 0]\nclass = No"] ;
507 -> 508 ;
509 [label="Wife_ education <= 3.5\ngini = 0.375\nsamples = 4\nvalue = [1, 3]\nclass = Yes"] ;
507 -> 509 ;
510 [label="gini = 0.5\nsamples = 2\nvalue = [1, 1]\nclass = No"] ;
509 -> 510 ;
511 [label="gini = 0.0\nsamples = 2\nvalue = [0, 2]\nclass = Yes"] ;
509 -> 511 ;
512 [label="Wife_age <= 30.5\ngini = 0.375\nsamples = 4\nvalue = [3, 1]\nclass = No"] ;
506 -> 512 ;
513 [label="Wife_religion <= 0.5\ngini = 0.5\nsamples = 2\nvalue = [1, 1]\nclass = No"] ;
512 -> 513 ;
514 [label="gini = 0.0\nsamples = 1\nvalue = [0, 1]\nclass = Yes"] ;
513 -> 514 ;
515 [label="gini = 0.0\nsamples = 1\nvalue = [1, 0]\nclass = No"] ;
513 -> 515 ;
516 [label="gini = 0.0\nsamples = 2\nvalue = [2, 0]\nclass = No"] ;
512 -> 516 ;
517 [label="gini = 0.0\nsamples = 1\nvalue = [0, 1]\nclass = Yes"] ;
503 -> 517 ;
518 [label="No_of_children_born <= 4.5\ngini = 0.278\nsamples = 6\nvalue = [1, 5]\nclass = Yes"] ;
502 -> 518 ;
519 [label="gini = 0.0\nsamples = 5\nvalue = [0, 5]\nclass = Yes"] ;
518 -> 519 ;
520 [label="gini = 0.0\nsamples = 1\nvalue = [1, 0]\nclass = No"] ;
518 -> 520 ;
521 [label="Standard_of_living_index <= 3.5\ngini = 0.206\nsamples = 137\nvalue = [16, 121]\nclass = Yes"] ;
473 -> 521 ;
522 [label="Wife_ education <= 2.5\ngini = 0.339\nsamples = 37\nvalue = [8, 29]\nclass = Yes"] ;
521 -> 522 ;
523 [label="Wife_age <= 37.5\ngini = 0.494\nsamples = 9\nvalue = [5, 4]\nclass = No"] ;
522 -> 523 ;
524 [label="Husband_Occupation <= 2.5\ngini = 0.444\nsamples = 6\nvalue = [2, 4]\nclass = Yes"] ;
523 -> 524 ;
525 [label="No_of_children_born <= 4.0\ngini = 0.444\nsamples = 3\nvalue = [2, 1]\nclass = No"] ;
524 -> 525 ;
526 [label="gini = 0.0\nsamples = 1\nvalue = [0, 1]\nclass = Yes"] ;
525 -> 526 ;
527 [label="gini = 0.0\nsamples = 2\nvalue = [2, 0]\nclass = No"] ;
525 -> 527 ;
528 [label="gini = 0.0\nsamples = 3\nvalue = [0, 3]\nclass = Yes"] ;
524 -> 528 ;
529 [label="gini = 0.0\nsamples = 3\nvalue = [3, 0]\nclass = No"] ;
523 -> 529 ;
530 [label="No_of_children_born <= 7.5\ngini = 0.191\nsamples = 28\nvalue = [3, 25]\nclass = Yes"] ;
522 -> 530 ;
531 [label="Wife_Working <= 0.5\ngini = 0.137\nsamples = 27\nvalue = [2, 25]\nclass = Yes"] ;
530 -> 531 ;
532 [label="gini = 0.0\nsamples = 22\nvalue = [0, 22]\nclass = Yes"] ;
531 -> 532 ;
533 [label="Wife_age <= 33.5\ngini = 0.48\nsamples = 5\nvalue = [2, 3]\nclass = Yes"] ;
531 -> 533 ;
534 [label="gini = 0.0\nsamples = 2\nvalue = [2, 0]\nclass = No"] ;
533 -> 534 ;
535 [label="gini = 0.0\nsamples = 3\nvalue = [0, 3]\nclass = Yes"] ;
533 -> 535 ;
536 [label="gini = 0.0\nsamples = 1\nvalue = [1, 0]\nclass = No"] ;
530 -> 536 ;
537 [label="No_of_children_born <= 4.5\ngini = 0.147\nsamples = 100\nvalue = [8, 92]\nclass = Yes"] ;
521 -> 537 ;
538 [label="Wife_Working <= 0.5\ngini = 0.193\nsamples = 74\nvalue = [8, 66]\nclass = Yes"] ;
537 -> 538 ;
539 [label="Husband_Occupation <= 1.5\ngini = 0.237\nsamples = 51\nvalue = [7, 44]\nclass = Yes"] ;
538 -> 539 ;
540 [label="Wife_age <= 36.5\ngini = 0.363\nsamples = 21\nvalue = [5, 16]\nclass = Yes"] ;
539 -> 540 ;
541 [label="No_of_children_born <= 3.5\ngini = 0.473\nsamples = 13\nvalue = [5, 8]\nclass = Yes"] ;
540 -> 541 ;
542 [label="Wife_religion <= 0.5\ngini = 0.494\nsamples = 9\nvalue = [4, 5]\nclass = Yes"] ;
541 -> 542 ;
543 [label="gini = 0.0\nsamples = 1\nvalue = [1, 0]\nclass = No"] ;
542 -> 543 ;
544 [label="Wife_age <= 35.5\ngini = 0.469\nsamples = 8\nvalue = [3, 5]\nclass = Yes"] ;
542 -> 544 ;
545 [label="Wife_age <= 33.5\ngini = 0.49\nsamples = 7\nvalue = [3, 4]\nclass = Yes"] ;
544 -> 545 ;
546 [label="Wife_age <= 32.5\ngini = 0.5\nsamples = 4\nvalue = [2, 2]\nclass = No"] ;
545 -> 546 ;
547 [label="gini = 0.5\nsamples = 2\nvalue = [1, 1]\nclass = No"] ;
546 -> 547 ;
548 [label="gini = 0.5\nsamples = 2\nvalue = [1, 1]\nclass = No"] ;
546 -> 548 ;
549 [label="Wife_age <= 34.5\ngini = 0.444\nsamples = 3\nvalue = [1, 2]\nclass = Yes"] ;
545 -> 549 ;
550 [label="gini = 0.0\nsamples = 1\nvalue = [0, 1]\nclass = Yes"] ;
549 -> 550 ;
551 [label="gini = 0.5\nsamples = 2\nvalue = [1, 1]\nclass = No"] ;
549 -> 551 ;
552 [label="gini = 0.0\nsamples = 1\nvalue = [0, 1]\nclass = Yes"] ;
544 -> 552 ;
553 [label="Wife_age <= 35.5\ngini = 0.375\nsamples = 4\nvalue = [1, 3]\nclass = Yes"] ;
541 -> 553 ;
554 [label="gini = 0.0\nsamples = 1\nvalue = [0, 1]\nclass = Yes"] ;
553 -> 554 ;
555 [label="Wife_religion <= 0.5\ngini = 0.444\nsamples = 3\nvalue = [1, 2]\nclass = Yes"] ;
553 -> 555 ;
556 [label="gini = 0.0\nsamples = 1\nvalue = [0, 1]\nclass = Yes"] ;
555 -> 556 ;
557 [label="gini = 0.5\nsamples = 2\nvalue = [1, 1]\nclass = No"] ;
555 -> 557 ;
558 [label="gini = 0.0\nsamples = 8\nvalue = [0, 8]\nclass = Yes"] ;
540 -> 558 ;
559 [label="Wife_age <= 39.5\ngini = 0.124\nsamples = 30\nvalue = [2, 28]\nclass = Yes"] ;
539 -> 559 ;
560 [label="gini = 0.0\nsamples = 26\nvalue = [0, 26]\nclass = Yes"] ;
559 -> 560 ;
561 [label="Wife_ education <= 2.5\ngini = 0.5\nsamples = 4\nvalue = [2, 2]\nclass = No"] ;
559 -> 561 ;
562 [label="gini = 0.0\nsamples = 1\nvalue = [0, 1]\nclass = Yes"] ;
561 -> 562 ;
563 [label="Husband_Occupation <= 2.5\ngini = 0.444\nsamples = 3\nvalue = [2, 1]\nclass = No"] ;
561 -> 563 ;
564 [label="gini = 0.5\nsamples = 2\nvalue = [1, 1]\nclass = No"] ;
563 -> 564 ;
565 [label="gini = 0.0\nsamples = 1\nvalue = [1, 0]\nclass = No"] ;
563 -> 565 ;
566 [label="Wife_ education <= 3.5\ngini = 0.083\nsamples = 23\nvalue = [1, 22]\nclass = Yes"] ;
538 -> 566 ;
567 [label="Wife_age <= 36.5\ngini = 0.278\nsamples = 6\nvalue = [1, 5]\nclass = Yes"] ;
566 -> 567 ;
568 [label="gini = 0.0\nsamples = 4\nvalue = [0, 4]\nclass = Yes"] ;
567 -> 568 ;
569 [label="No_of_children_born <= 3.5\ngini = 0.5\nsamples = 2\nvalue = [1, 1]\nclass = No"] ;
567 -> 569 ;
570 [label="gini = 0.0\nsamples = 1\nvalue = [0, 1]\nclass = Yes"] ;
569 -> 570 ;
571 [label="gini = 0.0\nsamples = 1\nvalue = [1, 0]\nclass = No"] ;
569 -> 571 ;
572 [label="gini = 0.0\nsamples = 17\nvalue = [0, 17]\nclass = Yes"] ;
566 -> 572 ;
573 [label="gini = 0.0\nsamples = 26\nvalue = [0, 26]\nclass = Yes"] ;
537 -> 573 ;
574 [label="Wife_ education <= 3.5\ngini = 0.473\nsamples = 172\nvalue = [106, 66]\nclass = No"] ;
8 -> 574 ;
575 [label="Wife_ education <= 1.5\ngini = 0.375\nsamples = 108\nvalue = [81, 27]\nclass = No"] ;
574 -> 575 ;
576 [label="No_of_children_born <= 8.5\ngini = 0.21\nsamples = 42\nvalue = [37, 5]\nclass = No"] ;
575 -> 576 ;
577 [label="Husband_education <= 2.5\ngini = 0.153\nsamples = 36\nvalue = [33, 3]\nclass = No"] ;
576 -> 577 ;
578 [label="gini = 0.0\nsamples = 21\nvalue = [21, 0]\nclass = No"] ;
577 -> 578 ;
579 [label="No_of_children_born <= 4.5\ngini = 0.32\nsamples = 15\nvalue = [12, 3]\nclass = No"] ;
577 -> 579 ;
580 [label="Media_exposure  <= 0.5\ngini = 0.469\nsamples = 8\nvalue = [5, 3]\nclass = No"] ;
579 -> 580 ;
581 [label="gini = 0.0\nsamples = 4\nvalue = [4, 0]\nclass = No"] ;
580 -> 581 ;
582 [label="Wife_age <= 42.5\ngini = 0.375\nsamples = 4\nvalue = [1, 3]\nclass = Yes"] ;
580 -> 582 ;
583 [label="gini = 0.0\nsamples = 1\nvalue = [1, 0]\nclass = No"] ;
582 -> 583 ;
584 [label="gini = 0.0\nsamples = 3\nvalue = [0, 3]\nclass = Yes"] ;
582 -> 584 ;
585 [label="gini = 0.0\nsamples = 7\nvalue = [7, 0]\nclass = No"] ;
579 -> 585 ;
586 [label="Wife_age <= 45.5\ngini = 0.444\nsamples = 6\nvalue = [4, 2]\nclass = No"] ;
576 -> 586 ;
587 [label="gini = 0.0\nsamples = 4\nvalue = [4, 0]\nclass = No"] ;
586 -> 587 ;
588 [label="gini = 0.0\nsamples = 2\nvalue = [0, 2]\nclass = Yes"] ;
586 -> 588 ;
589 [label="No_of_children_born <= 6.5\ngini = 0.444\nsamples = 66\nvalue = [44, 22]\nclass = No"] ;
575 -> 589 ;
590 [label="Wife_Working <= 0.5\ngini = 0.375\nsamples = 48\nvalue = [36, 12]\nclass = No"] ;
589 -> 590 ;
591 [label="Wife_religion <= 0.5\ngini = 0.278\nsamples = 36\nvalue = [30, 6]\nclass = No"] ;
590 -> 591 ;
592 [label="Wife_age <= 42.5\ngini = 0.463\nsamples = 11\nvalue = [7, 4]\nclass = No"] ;
591 -> 592 ;
593 [label="gini = 0.0\nsamples = 2\nvalue = [0, 2]\nclass = Yes"] ;
592 -> 593 ;
594 [label="No_of_children_born <= 1.5\ngini = 0.346\nsamples = 9\nvalue = [7, 2]\nclass = No"] ;
592 -> 594 ;
595 [label="gini = 0.0\nsamples = 1\nvalue = [0, 1]\nclass = Yes"] ;
594 -> 595 ;
596 [label="No_of_children_born <= 2.5\ngini = 0.219\nsamples = 8\nvalue = [7, 1]\nclass = No"] ;
594 -> 596 ;
597 [label="Standard_of_living_index <= 3.5\ngini = 0.444\nsamples = 3\nvalue = [2, 1]\nclass = No"] ;
596 -> 597 ;
598 [label="gini = 0.0\nsamples = 1\nvalue = [0, 1]\nclass = Yes"] ;
597 -> 598 ;
599 [label="gini = 0.0\nsamples = 2\nvalue = [2, 0]\nclass = No"] ;
597 -> 599 ;
600 [label="gini = 0.0\nsamples = 5\nvalue = [5, 0]\nclass = No"] ;
596 -> 600 ;
601 [label="No_of_children_born <= 3.5\ngini = 0.147\nsamples = 25\nvalue = [23, 2]\nclass = No"] ;
591 -> 601 ;
602 [label="No_of_children_born <= 2.5\ngini = 0.26\nsamples = 13\nvalue = [11, 2]\nclass = No"] ;
601 -> 602 ;
603 [label="gini = 0.0\nsamples = 7\nvalue = [7, 0]\nclass = No"] ;
602 -> 603 ;
604 [label="Husband_Occupation <= 2.5\ngini = 0.444\nsamples = 6\nvalue = [4, 2]\nclass = No"] ;
602 -> 604 ;
605 [label="Husband_Occupation <= 1.5\ngini = 0.5\nsamples = 4\nvalue = [2, 2]\nclass = No"] ;
604 -> 605 ;
606 [label="gini = 0.0\nsamples = 1\nvalue = [1, 0]\nclass = No"] ;
605 -> 606 ;
607 [label="Wife_ education <= 2.5\ngini = 0.444\nsamples = 3\nvalue = [1, 2]\nclass = Yes"] ;
605 -> 607 ;
608 [label="gini = 0.0\nsamples = 1\nvalue = [0, 1]\nclass = Yes"] ;
607 -> 608 ;
609 [label="Wife_age <= 47.5\ngini = 0.5\nsamples = 2\nvalue = [1, 1]\nclass = No"] ;
607 -> 609 ;
610 [label="gini = 0.0\nsamples = 1\nvalue = [1, 0]\nclass = No"] ;
609 -> 610 ;
611 [label="gini = 0.0\nsamples = 1\nvalue = [0, 1]\nclass = Yes"] ;
609 -> 611 ;
612 [label="gini = 0.0\nsamples = 2\nvalue = [2, 0]\nclass = No"] ;
604 -> 612 ;
613 [label="gini = 0.0\nsamples = 12\nvalue = [12, 0]\nclass = No"] ;
601 -> 613 ;
614 [label="Wife_ education <= 2.5\ngini = 0.5\nsamples = 12\nvalue = [6, 6]\nclass = No"] ;
590 -> 614 ;
615 [label="Wife_religion <= 0.5\ngini = 0.32\nsamples = 5\nvalue = [4, 1]\nclass = No"] ;
614 -> 615 ;
616 [label="gini = 0.0\nsamples = 1\nvalue = [0, 1]\nclass = Yes"] ;
615 -> 616 ;
617 [label="gini = 0.0\nsamples = 4\nvalue = [4, 0]\nclass = No"] ;
615 -> 617 ;
618 [label="Husband_Occupation <= 2.5\ngini = 0.408\nsamples = 7\nvalue = [2, 5]\nclass = Yes"] ;
614 -> 618 ;
619 [label="No_of_children_born <= 2.5\ngini = 0.444\nsamples = 3\nvalue = [2, 1]\nclass = No"] ;
618 -> 619 ;
620 [label="gini = 0.0\nsamples = 1\nvalue = [0, 1]\nclass = Yes"] ;
619 -> 620 ;
621 [label="gini = 0.0\nsamples = 2\nvalue = [2, 0]\nclass = No"] ;
619 -> 621 ;
622 [label="gini = 0.0\nsamples = 4\nvalue = [0, 4]\nclass = Yes"] ;
618 -> 622 ;
623 [label="Standard_of_living_index <= 2.5\ngini = 0.494\nsamples = 18\nvalue = [8, 10]\nclass = Yes"] ;
589 -> 623 ;
624 [label="gini = 0.0\nsamples = 2\nvalue = [2, 0]\nclass = No"] ;
623 -> 624 ;
625 [label="Wife_age <= 42.5\ngini = 0.469\nsamples = 16\nvalue = [6, 10]\nclass = Yes"] ;
623 -> 625 ;
626 [label="gini = 0.0\nsamples = 2\nvalue = [0, 2]\nclass = Yes"] ;
625 -> 626 ;
627 [label="Wife_Working <= 0.5\ngini = 0.49\nsamples = 14\nvalue = [6, 8]\nclass = Yes"] ;
625 -> 627 ;
628 [label="Husband_education <= 2.5\ngini = 0.5\nsamples = 12\nvalue = [6, 6]\nclass = No"] ;
627 -> 628 ;
629 [label="gini = 0.0\nsamples = 2\nvalue = [0, 2]\nclass = Yes"] ;
628 -> 629 ;
630 [label="Wife_ education <= 2.5\ngini = 0.48\nsamples = 10\nvalue = [6, 4]\nclass = No"] ;
628 -> 630 ;
631 [label="No_of_children_born <= 12.0\ngini = 0.32\nsamples = 5\nvalue = [4, 1]\nclass = No"] ;
630 -> 631 ;
632 [label="gini = 0.0\nsamples = 4\nvalue = [4, 0]\nclass = No"] ;
631 -> 632 ;
633 [label="gini = 0.0\nsamples = 1\nvalue = [0, 1]\nclass = Yes"] ;
631 -> 633 ;
634 [label="No_of_children_born <= 9.5\ngini = 0.48\nsamples = 5\nvalue = [2, 3]\nclass = Yes"] ;
630 -> 634 ;
635 [label="gini = 0.0\nsamples = 2\nvalue = [0, 2]\nclass = Yes"] ;
634 -> 635 ;
636 [label="Husband_education <= 3.5\ngini = 0.444\nsamples = 3\nvalue = [2, 1]\nclass = No"] ;
634 -> 636 ;
637 [label="gini = 0.0\nsamples = 1\nvalue = [0, 1]\nclass = Yes"] ;
636 -> 637 ;
638 [label="gini = 0.0\nsamples = 2\nvalue = [2, 0]\nclass = No"] ;
636 -> 638 ;
639 [label="gini = 0.0\nsamples = 2\nvalue = [0, 2]\nclass = Yes"] ;
627 -> 639 ;
640 [label="No_of_children_born <= 1.5\ngini = 0.476\nsamples = 64\nvalue = [25, 39]\nclass = Yes"] ;
574 -> 640 ;
641 [label="gini = 0.0\nsamples = 9\nvalue = [9, 0]\nclass = No"] ;
640 -> 641 ;
642 [label="Wife_Working <= 0.5\ngini = 0.413\nsamples = 55\nvalue = [16, 39]\nclass = Yes"] ;
640 -> 642 ;
643 [label="Wife_age <= 45.5\ngini = 0.449\nsamples = 44\nvalue = [15, 29]\nclass = Yes"] ;
642 -> 643 ;
644 [label="Husband_Occupation <= 1.5\ngini = 0.365\nsamples = 25\nvalue = [6, 19]\nclass = Yes"] ;
643 -> 644 ;
645 [label="Wife_age <= 42.5\ngini = 0.133\nsamples = 14\nvalue = [1, 13]\nclass = Yes"] ;
644 -> 645 ;
646 [label="No_of_children_born <= 4.0\ngini = 0.444\nsamples = 3\nvalue = [1, 2]\nclass = Yes"] ;
645 -> 646 ;
647 [label="gini = 0.0\nsamples = 1\nvalue = [1, 0]\nclass = No"] ;
646 -> 647 ;
648 [label="gini = 0.0\nsamples = 2\nvalue = [0, 2]\nclass = Yes"] ;
646 -> 648 ;
649 [label="gini = 0.0\nsamples = 11\nvalue = [0, 11]\nclass = Yes"] ;
645 -> 649 ;
650 [label="Wife_age <= 42.5\ngini = 0.496\nsamples = 11\nvalue = [5, 6]\nclass = Yes"] ;
644 -> 650 ;
651 [label="gini = 0.0\nsamples = 2\nvalue = [0, 2]\nclass = Yes"] ;
650 -> 651 ;
652 [label="Standard_of_living_index <= 2.5\ngini = 0.494\nsamples = 9\nvalue = [5, 4]\nclass = No"] ;
650 -> 652 ;
653 [label="gini = 0.0\nsamples = 1\nvalue = [0, 1]\nclass = Yes"] ;
652 -> 653 ;
654 [label="Husband_education <= 3.0\ngini = 0.469\nsamples = 8\nvalue = [5, 3]\nclass = No"] ;
652 -> 654 ;
655 [label="gini = 0.0\nsamples = 1\nvalue = [1, 0]\nclass = No"] ;
654 -> 655 ;
656 [label="No_of_children_born <= 6.5\ngini = 0.49\nsamples = 7\nvalue = [4, 3]\nclass = No"] ;
654 -> 656 ;
657 [label="Wife_religion <= 0.5\ngini = 0.444\nsamples = 6\nvalue = [4, 2]\nclass = No"] ;
656 -> 657 ;
658 [label="Standard_of_living_index <= 3.5\ngini = 0.5\nsamples = 4\nvalue = [2, 2]\nclass = No"] ;
657 -> 658 ;
659 [label="gini = 0.0\nsamples = 1\nvalue = [0, 1]\nclass = Yes"] ;
658 -> 659 ;
660 [label="Wife_age <= 44.5\ngini = 0.444\nsamples = 3\nvalue = [2, 1]\nclass = No"] ;
658 -> 660 ;
661 [label="gini = 0.0\nsamples = 2\nvalue = [2, 0]\nclass = No"] ;
660 -> 661 ;
662 [label="gini = 0.0\nsamples = 1\nvalue = [0, 1]\nclass = Yes"] ;
660 -> 662 ;
663 [label="gini = 0.0\nsamples = 2\nvalue = [2, 0]\nclass = No"] ;
657 -> 663 ;
664 [label="gini = 0.0\nsamples = 1\nvalue = [0, 1]\nclass = Yes"] ;
656 -> 664 ;
665 [label="No_of_children_born <= 6.5\ngini = 0.499\nsamples = 19\nvalue = [9, 10]\nclass = Yes"] ;
643 -> 665 ;
666 [label="Wife_age <= 48.5\ngini = 0.473\nsamples = 13\nvalue = [8, 5]\nclass = No"] ;
665 -> 666 ;
667 [label="Standard_of_living_index <= 3.5\ngini = 0.5\nsamples = 10\nvalue = [5, 5]\nclass = No"] ;
666 -> 667 ;
668 [label="gini = 0.0\nsamples = 2\nvalue = [0, 2]\nclass = Yes"] ;
667 -> 668 ;
669 [label="Husband_Occupation <= 1.5\ngini = 0.469\nsamples = 8\nvalue = [5, 3]\nclass = No"] ;
667 -> 669 ;
670 [label="No_of_children_born <= 4.5\ngini = 0.408\nsamples = 7\nvalue = [5, 2]\nclass = No"] ;
669 -> 670 ;
671 [label="Wife_age <= 46.5\ngini = 0.48\nsamples = 5\nvalue = [3, 2]\nclass = No"] ;
670 -> 671 ;
672 [label="gini = 0.0\nsamples = 1\nvalue = [0, 1]\nclass = Yes"] ;
671 -> 672 ;
673 [label="Wife_age <= 47.5\ngini = 0.375\nsamples = 4\nvalue = [3, 1]\nclass = No"] ;
671 -> 673 ;
674 [label="gini = 0.0\nsamples = 2\nvalue = [2, 0]\nclass = No"] ;
673 -> 674 ;
675 [label="gini = 0.5\nsamples = 2\nvalue = [1, 1]\nclass = No"] ;
673 -> 675 ;
676 [label="gini = 0.0\nsamples = 2\nvalue = [2, 0]\nclass = No"] ;
670 -> 676 ;
677 [label="gini = 0.0\nsamples = 1\nvalue = [0, 1]\nclass = Yes"] ;
669 -> 677 ;
678 [label="gini = 0.0\nsamples = 3\nvalue = [3, 0]\nclass = No"] ;
666 -> 678 ;
679 [label="Wife_age <= 46.5\ngini = 0.278\nsamples = 6\nvalue = [1, 5]\nclass = Yes"] ;
665 -> 679 ;
680 [label="gini = 0.0\nsamples = 1\nvalue = [1, 0]\nclass = No"] ;
679 -> 680 ;
681 [label="gini = 0.0\nsamples = 5\nvalue = [0, 5]\nclass = Yes"] ;
679 -> 681 ;
682 [label="Media_exposure  <= 0.5\ngini = 0.165\nsamples = 11\nvalue = [1, 10]\nclass = Yes"] ;
642 -> 682 ;
683 [label="gini = 0.0\nsamples = 1\nvalue = [1, 0]\nclass = No"] ;
682 -> 683 ;
684 [label="gini = 0.0\nsamples = 10\nvalue = [0, 10]\nclass = Yes"] ;
682 -> 684 ;
}